{"bias_firstHidden": [[[0.3689309636044217], [-2.9592575251682414], [-2.8633441220074367], [0.11954813393582853], [-0.3171193947598372], [-0.23751514361731818], [-3.8865068952386603], [-5.756960257457473], [0.9514531823431907], [-1.2268946174789965], [6.0734332922028695], [-2.6569628672071555], [-4.243406227542947], [-1.429007811832026], [-2.0685599180549676], [5.980426095316271], [3.0804013980395837], [4.972275536175328], [-4.8955355495493], [-3.5306300458374817], [-1.488608672086075], [-1.3602103754368247], [4.263471669086118], [-4.854115573061248], [2.9368353756398173], [0.7102686016801512], [1.4339833870438035], [3.3180559982623676], [-5.001840042776711], [-2.0944514957554983], [1.330848482200281], [2.904799764265637], [-4.586956060644426], [1.9426711257024998], [-0.699472220419149], [4.481270980794956]], [[-3.787562513120398], [0.5221488410361774], [0.8255247604013478], [0.520656936339476], [6.493673069160257], [-3.036088769421663], [-3.535957666522448], [-0.7332768864665737], [2.030088299960874], [-1.9452893978573262], [5.49951053406646], [1.6520042038600264], [-2.5648668008472675], [4.251789737405561], [1.864331171917484], [-1.2991172064388083], [-3.810079835146808], [2.923538577264423], [1.0406412029610719], [2.0134223721059508], [1.7850637105159919], [2.102863598629002], [-2.4870408704880007], [1.7707586562367887], [6.4273943629906825]], [[2.093296871010252], [5.43820794901903], [-1.2275580609595358], [3.156876188722111], [-5.935553616338935], [3.5115273543195373], [5.265513831236113], [0.982853181060332], [-2.212454764960125], [0.08769148408320127], [6.465627049087], [2.273430357068361], [4.716656523753704], [0.47353624714742315], [3.4789336236927655], [-5.102902512067283]], [[-1.8780697338608947], [-6.34260724268907], [-0.12004048806094048], [0.6963965598997572], [1.3167182543113976], [0.735697897624116], [0.11775563049553117], [-4.376625079010026], [-2.0563900748593005]], [[-2.494231622521579], [-0.36221737315837976], [-3.359245522403655], [5.530344139586065]], [[3.365797825348968]]], "weights_firstHidden": [[[1.289139207975631], [-2.3274191205153003], [1.8734564761317873], [1.6055167303445792], [-0.8108643246972669], [3.4297735205281703], [-1.7388249367734017], [-0.6342911699084538], [-2.185097608416127]], [[-1.7842035858862744], [-1.5162854908170216], [0.6460787488149631], [2.5931196405370196], [0.7472171331954806], [-0.8351598485804281], [-1.0500023539845886], [1.874381616934576], [-2.839710430517761], [1.0557249265797983], [0.9362121466005258], [1.8975867868920973], [-2.2320092176898623], [-1.5682440478097668], [1.4954421066682344], [0.09333002867064755]], [[-5.658385266960554], [0.45010922335168135], [-2.4152123024272774], [-0.9077299868967224], [-0.16448841481320975], [-1.3316169079516853], [-1.6059656611935678], [-1.8062436968385276], [0.14691685009314748], [-1.7729123137893317], [1.5453317211771842], [1.6498007509793902], [-0.622438719471474], [-3.5675434912700803], [3.0908004853288196], [1.7754595823484416], [-4.988333157275738], [1.5845314121418248], [-0.2800639977494417], [-0.5062865239873574], [1.1936810454918487], [0.7227688534289898], [4.343341082908617], [-3.0771196321716388], [0.20513986295884745]], [[-0.481816763364091], [-0.6317025735828857], [0.7519615455321857], [1.4421559264814559], [-2.8497646742951668], [0.10896252681020033], [4.123720409263038], [-1.232268114517979], [-0.41021632871207014], [1.5654089876061585], [1.8059518534751144], [-0.8713283723125145], [-0.5586647648995495], [0.6232302191192823], [2.494291887041713], [-4.255952974396793], [-0.038072668835362755], [2.303044190749791], [2.4683302735303903], [0.8542030168563344], [-2.2249503688144046], [-1.908491134441091], [1.3148193099071155], [-1.0531657632827152], [-1.7247333894054648], [-1.0711286314140416], [0.05974951636213799], [2.2091139871993932], [2.1762006067520834], [-2.0106545183859446], [2.3238085176328878], [0.30925617831258734], [-1.5005985466127074], [2.39520347629926], [-0.03926275975667104], [2.0073815747630164]], [[-0.4245295019287386], [0.7604968020046936], [1.6756860470113095], [-0.41745653315759856], [-5.60225642365355], [-1.7308574074562346], [0.04180204213740768], [-1.8033210220131934], [-1.3118366030374964], [0.483983131415872], [-0.4483341445704564], [1.3487988715692352], [0.3033182552507099], [2.4593399572900103], [-1.5652178372533698], [0.805959070460071], [-0.7969019954371033], [-1.2041560867081351], [-2.0623227516409925], [2.956620964172704], [1.0932292293061359], [-4.5815692973437345], [0.6257468712076681], [-1.4650473849009107], [0.3666222173098299], [3.046162238317934], [5.18236829188195], [0.9388753216562304], [1.4819453848688866], [-2.659234860695719], [0.6832276894137507], [0.7651207585525492], [2.351935672155455], [-1.7966266771625663], [1.0576143419340776], [0.3146947018627196], [-2.1101108766927714], [-3.6577786427907952], [-1.0303302817537021], [0.44348676666111], [-1.186247707770821], [1.467985804185747], [-3.8901417159269176], [1.464214032324298], [-4.029183680550251], [2.2611955231550582], [-2.4098203039979555], [-0.3668912707205377], [-1.800376609397787]], [[-1.0313301864604245], [2.2973248635530537], [0.22923793741327986], [-2.025904907070113], [0.11176095451193352], [-0.4049755957007577], [1.0189040514660777], [1.6782754970920681], [0.369032324094809], [2.6259516685478075], [1.545292237855377], [1.1393489349623045], [-0.7110899634413165], [2.8704667234829215], [-0.07122755290292848], [2.5440305935191425], [-0.49432026340112056], [-2.5742893864763197], [-0.714207536903745], [0.4696826335165406], [0.03647167462367218], [-2.2544205293906057], [-0.3488472866916874], [0.4975463610020818], [1.979021425526784], [1.8818165759347976], [-1.0959025016725132], [0.966454571580567], [-0.9968896791901337], [2.7697122744133695], [0.5686467154117192], [-0.43600032791056065], [0.6211723712256857], [-0.735824410212321], [-1.4860894773429691], [-0.556527357667226], [3.2071384890867956], [2.294676036054125], [-1.1051124891612805], [2.189917146805755], [-2.736165366801793], [-1.556390999528909], [1.121309765068066], [-2.613657468950197], [0.3398329998401415], [0.39570085480829953], [-1.949184511214805], [-1.0355199253972343], [0.8792211527360766], [0.027435399273614713], [-0.17492460431085366], [2.3357821399244636], [0.8046986312657747], [4.273203341113126], [0.5388557539048004], [0.54887623170197], [-3.644903503733641], [1.6730744130305835], [0.7352297743882719], [-2.416886708646946], [0.798383485236575], [0.08201297580787215], [2.469054386204956], [-0.7463007908818642]]], "bias_secondHidden": [[[1.5629742155339954], [-1.2326095050824195], [-1.0451852516528088], [2.860353196587765], [-3.670666739007411], [-0.9532615386189716], [-3.444306365315901], [-0.7849107871267873], [-1.1158648686938735], [-1.6170331794083634]], [[0.19117013180312936]]], "weights_secondHidden": [[[-3.7384656392363675, -0.37254884754567785, -4.745713733746114, 0.31592355843483033, -0.5241046368734271, -0.48846096677501405, 0.9594323382346827, 1.7812949832624392, -0.5406245309349297, -3.561503070979153, 0.6611631551315825, -0.3623854796146518, -0.5696256980639598, -0.5037871878355176, -4.264240006811199, 2.024043645881034, 1.069201259160042, -3.1448184722890886, 1.225568416384335, 2.571958102165199, 2.6731967910599534, 1.2795189672560654, -0.3125632610809155, -1.2115507100681357, 0.8440075812208715, -2.3699230667103093, -4.499556072193494, 1.456643811595392, -0.7694648968369533, 2.154303561970588, 2.0396042724329932, -1.1693157664743592, -0.35453333460588066, -0.42932366711080516, -2.0571240690848307, 1.4398769046551796, 0.1260581090556303, -0.5507238406054931, -0.7379463987548923, -1.1594560332040325, -1.2291065396739995, 1.605887245995724, -2.595374311162922, -2.450942864669911, 3.0752450517527983, 2.423959119796643, 4.1557725598076924, 2.5187353957584535, 2.6741740497547997, 0.48782484865420184, -1.0633074266258502, -0.31806622190683786, -0.3643206860602484, -2.3883277379559416, -0.39436208840513315, 1.7049273763806694, -2.696531049768455, -0.32065037686348397, -2.298181675435821, 0.964213412744026, -5.559820701289743, -0.6717984585280662, -4.472921297432534, -2.3424815042599887, -1.3701298118791634, -1.7365094409394413, -1.2856368878920779, -0.045592797858482914, 1.6659911611411031, 0.8197163360530637, 5.64793359715011, 0.6532708606815356, 0.7951748646478755, 1.7168023051078376, 0.6126932615080574, -0.7238701238493888, 5.950120284220263, 0.0012280375433123547, 0.7894337350131434, 1.2201383042912022, -1.524233696119423, -2.307703323327057, -0.01957051598605261, -1.8890133419404442, 2.0027626071078988, 3.5480224308703936, 4.066186361269645, -3.2450827508696958, -2.1178968938185663, -1.9146124338967137, 5.61586750487027], [2.3569795545394623, -2.2460839719772348, -0.19591625044371508, 0.1360996273280179, -0.5174035864424237, 1.9466047844291534, -1.459211278151478, -2.3889263909681393, -0.20076302883548539, 0.7118537316157516, 1.642456774936079, 0.1393600187598899, -1.6652249799929955, 2.5673417766221034, 0.18533164871526409, 1.0634878003107762, 0.03008416035312833, 2.0004223963971515, 3.139433674535871, -1.8595174565161687, 0.4803321921326475, -0.9104193211323014, -5.3314990315903055, -0.7383194922281128, 1.2063204158388259, -1.8350725991385302, -2.1275991218030703, 2.557078878287866, -2.049923170779305, 5.311649869879371, 1.1080815123944114, 3.2099051936019762, -1.0961910713995322, -1.0594658568672044, -0.6270446486034841, -0.03646639375911054, -2.140349359410418, -5.331650959698139, -4.577639435906357, -1.0949000481950073, -0.008286720273850356, 1.4445729413442174, -1.0126791041393928, 0.521905669742684, -2.7978034067214788, 4.1923600640443555, -2.433486730254833, 0.44508034750626335, -0.6129712999433512, -2.7538324586332754, -0.5277424820936667, -5.645158999252555, 2.963526020423628, 2.9282750742806924, -0.39082668040974644, -2.120165081354352, 2.92340256330142, 1.71474954900846, -3.186364546589932, 2.3735651332797074, -2.429544974906306, 1.1213441526056824, -2.746847987369212, -3.335951554471783, 1.5635028189103295, -0.7838027663465225, 2.1391472580444026, -1.3154367272542264, -4.1086389468524835, 0.7011563278509123, -3.135731230695227, -2.069762540229883, -0.4852346065013545, -0.3986506538128071, 1.5507058289554858, -0.7005594618151941, 1.3982617675083158, -1.7474981288262463, 0.992234404281982, -0.8928164941991503, 2.0744508619835376, -1.4846246142578745, 4.165819739937025, -2.0710983452456464, -2.9938182260593966, 1.6680723566787334, 4.91367769644096, 3.2553917728800146, 0.5720084941205749, -2.634516004224885, 3.1523985646682346], [1.344833828954894, 3.3038184022382837, 2.165583300065241, 2.0316611235956263, 3.1151595484762313, -1.9945666403807718, -0.12188905629756389, -0.8914338545070767, 1.4898011903938821, -2.4045296531406164, 3.661654705097103, -1.9547732882456312, -2.7994351397981827, -0.14576450882966102, 2.6476594894974457, 0.04512774283223256, -2.525311312806326, 1.7461590951860422, -1.6358770944273218, 1.550450438147077, 3.114403464807933, 1.1814490466129681, 1.735432186828481, 5.048470327799748, -0.3607394502189982, -0.14450037042716354, 0.4287002527128728, -0.9563522923651928, 2.6997408145102884, 2.7731130819466308, -4.223818628161743, 3.321549938049463, -4.6721222885790965, 1.495376000683395, -0.4896412694956812, -2.539382583528911, 2.224338874513691, 1.2486921229850199, 3.0229882550313745, -0.02952854553932921, -1.4190810450827769, -2.010970921306909, -1.7781985744751958, -0.301555101412925, 0.6566215590030284, 2.653419508987178, -0.015709761206310735, 1.641532917898921, -0.5248072127443135, -0.006147603706839755, -2.707959338712798, -4.488454134024125, -3.121254339422075, -3.8072917266733244, -0.36507673104862326, 1.1925337646530996, -2.0652371793807562, 2.36077856748279, 2.3771247751282814, 1.219192192124255, -0.5634842007170018, -1.470337526039635, 2.728029563728161, 4.704091061163366, -1.0062753017965276, -0.459176969205197, -2.269521730072536, -1.9783428469594924, -2.065294299104135, 0.03765249274763627, -1.0737509173044981, -0.7623771672702777, -1.0954957168575508, -0.09738822049747586, 0.6533591970676319, -3.882484521907462, -2.4348834728717543, -1.0082806035581906, -1.6358204532391705, -1.697283525425511, -3.7981721888741555, -1.2969338797374348, -3.4124124243821923, -2.130267033867754, 1.9549726033159265, -0.8174944941160955, 2.938094578039911, -4.146100608488246, -5.797275269804733, 0.6730176442775491, 1.150892612476445], [1.3925666167561803, -0.4893824400835305, -1.4933328168913607, 2.4440928816253438, 1.301572946301884, 0.755841284717621, 1.1847446165015891, -1.6327363663952772, 1.0428396568784293, 0.27292946262404727, -0.671354600809918, -0.4145644320999517, 3.7869985069139607, 1.566740482630324, -0.7250334102645675, -1.3217496618091498, 0.837534298740126, -0.8668167920405895, -1.8555484893333238, -4.3094620520128455, 2.383811276892383, 3.936896612949862, 1.893345291496412, 0.6707492484745328, -1.5233325908733342, -4.1107668945626585, -0.7049433758986069, 0.945749085096993, 2.6400945801668865, 1.8088406864981381, -1.1925642607623015, 2.929581828710483, 4.610782911868361, 3.6801706659353792, -2.6510780455380525, -0.0182551701814897, -2.680231928202244, 0.8571095126272121, 0.9643469725709359, 1.4673835779985571, 1.3703227485393485, 1.1357800274155276, -0.48886160281348123, 1.972807750947574, 1.7128844740328089, -1.7815261960399758, 1.3140902497401517, -2.660523983365241, -2.3093182264056313, 2.1269937287473057, 0.7170908218044048, -1.1123288403345117, -0.7677242872328325, 0.4671381348714076, 0.6974484692313763, 0.2345659329988261, -1.685566391719133, -0.22084654727757824, -0.6162567982655628, 1.0726908573811795, 0.5738268073244965, 4.907798754163763, -1.762052326522118, -0.26994441518612, -0.5771244717240382, 0.43372458001619174, 0.5017648503826297, 4.009779540128294, 1.3212782940972465, 0.6863645226509585, 3.0868472848229715, 1.959808075136741, -2.5374526854108064, -1.8610259688760356, -0.609911451772285, -0.9358751508491927, 2.4956423014428695, -2.875873686998956, -2.863576147092633, 0.47397810321591805, 0.0012326401520992292, 3.396110966774981, -0.5824764965476711, 2.9170951748137606, 1.4936932047015965, -3.773339174235028, -4.672969373730609, 3.6631783507379376, -3.5790993360104637, 1.189943245407648, 1.1803231636120137], [-4.615904130303658, -0.5560143350119084, -2.3454661231506724, -0.11504245868993246, -0.866058529165866, -1.2673820333811912, 4.344520904754051, 0.017052726432076115, -1.2839976787405674, -1.534037460571914, -0.7072314414864109, 0.90420701827048, 0.7966027612931782, 0.9368521338917737, 0.706854046281949, -0.9551845962398533, 1.6894374862777202, 1.612209082709611, 1.554358521273417, 2.138833519277288, 1.0196363387421523, -0.7770739064830876, 3.126339727305698, -0.6779371748572087, -5.394759508075059, 2.9499146428991336, -1.1239880293888613, 2.482886582435206, -0.27719902309507916, 0.10917961028694555, -2.774541632901636, 2.9897387164107436, 4.7235762546179645, -0.18283698356711597, -1.036284459508781, 0.5683602193223295, -1.5086932722510507, 2.497613414555448, 3.87841661112818, -0.40438391185584566, -1.475400588612569, 1.389263779701988, 1.0161248764322006, -3.2766736751651546, 0.027218871321565197, 4.460431847023949, -0.10959336455331425, 0.8361852172350017, 6.238573635917991, 3.5874217335667518, 1.9838532871117938, -1.8943931545932915, 1.1701777271079081, -1.2357173297448254, -1.0945609843485158, 1.8241750532443795, -4.0236232469634015, -3.166899931123137, 1.5989365479290267, 1.1720036253824415, 0.08774075957645389, 2.88306780786205, 0.7596507242795085, -1.1990868081263928, -0.026195776255086622, -3.3655419911889055, -2.7503418908676416, -4.677995099868558, 2.904281455555648, 2.312041502225452, 1.3896137165076632, -1.5246286856054434, 1.1125040216374693, 0.5056739479247436, -0.1323302702122956, -2.514486432339515, -3.7853443700662996, -0.49436792525835427, -0.6901703340333729, 3.3208461432870773, -0.011175211465187962, 0.10889876448453434, 1.8834673777590365, -1.857215407096044, 1.3645668715306387, -2.0433152779136785, -3.428172094315083, -1.0245625134321776, 0.671679798640435, -0.7265502575254906, 1.1480955558631392], [-0.5282834051746307, -0.2440446499647692, 1.258833769037913, 0.5523921616812156, -1.0105739912949745, -1.9433450103861105, -2.307501275301683, 0.9786474768908039, 1.005567901087313, 4.5942468769896525, 2.3527709472983, 2.2545349943332575, -0.4645639666629717, 2.765034539468273, 2.219118053809548, 2.9580109292162, -1.3763372845095965, -5.523229563982607, -2.0518819822285828, 2.138956412461588, -3.0850653989196393, -2.450726432972602, -0.38725489054480566, -1.3548178912458173, 1.8774610647804046, -1.4671337158416085, 0.1631763119585914, -2.4867239820105373, 0.5429936153662689, -3.756083962535337, 1.1429351039068236, -2.0483711061510017, 2.196735654356699, 2.716034129400671, -4.405472661084712, 1.459385506206785, 0.5318148985736219, -2.2318929419756994, 2.12036832337751, 3.644541286149546, 2.6346077564860937, -1.6484729032662495, -0.809306183936447, -2.4895135384905904, 1.3408983983732563, -3.9153705122247118, 0.27449466252530574, 2.951348614062225, 2.9344552872363567, -1.3372375900531352, -3.2384232468326704, -1.6696357569175282, 0.7872286887895978, -2.0509160392677943, -2.0158201805469025, 0.4508402719572421, -0.517055335404382, -0.007577767495973858, -4.318301150897795, -0.14836403071665116, 2.66672336870279, -0.30911661120002254, 1.0048887259913175, 3.5505435728758217, 4.245081496257107, -0.47574288754637695, -2.479176746888722, -3.2054176695363346, 2.7844113682327847, -1.4654837778891356, 0.8698798473473356, -2.680256817566418, -3.0963652725428776, -0.19514824804282083, -3.0573758259469086, 2.5043213553389854, 2.8792032692438005, 4.840388713646, 0.32509542244611783, 0.09322199217986538, 2.2349639863436006, -3.124421984582653, 2.4702764823230625, -3.7196825620692455, 1.2795392431032848, -0.923316559910493, 1.2812247333743756, 0.7623951187549611, -4.494479961648979, 3.817085752189998, 0.030442349313019812], [0.5388416933650014, -2.020719109131058, 1.3986327950260895, 1.6889693512682964, -0.4381828680254112, 0.3103495729710897, -5.055090998050628, 0.49399984268672026, -1.151805137965754, -1.9273876737394562, 0.26078975045190544, -2.170604431015028, 3.5688264901315625, -2.756647328906935, 0.6750808512190576, -1.8853563369066748, -1.5532603498460542, 0.15388002745214058, 0.20293457680886642, 0.30598380701867783, 1.0119870090980183, -2.670592703252871, -1.5126717681783133, 7.8087513233638335, -3.009649304332611, -5.147968281936487, -1.7753052196295045, 1.2108589167073802, 0.4839174806249109, -0.8122701003646425, -0.4954385888016964, -1.172822156430496, 0.7332753137135184, -0.33306586451664244, 0.390536257158251, -0.09778315572188367, -0.8148835084622114, 2.538868785783615, -0.4158442385406483, -1.975213118466883, 1.5110783203811806, 0.4861043726798221, -1.0491437430271255, -0.40734314014872486, -2.899665050229844, 1.308324351549162, 3.919556461858938, 0.3184058478164504, 2.254622949485099, -2.0205528227826433, -0.876440676321715, -0.14676016179991747, 2.116997472223587, 0.8395282697737527, 3.5926884725711092, 4.858485242833558, -1.2471801563577953, 2.1101963231386645, 0.1450486748170546, 1.5901164532202872, 4.8633764847208845, 0.7060255312425185, 1.967185331550251, -0.3192674480798182, 0.2870966493788369, -1.9815681630702402, 2.358558077312272, -2.587546375975898, 0.7093188559273427, 0.48240395200027764, -2.9522697442475407, 2.670722627435106, -1.387266344418463, 2.0511107753346756, 4.86280680464436, -3.20184998747208, -1.184558072542579, 3.9363133285103458, 1.4256628330542218, -1.2288874464878565, -0.5751752148719802, -1.812195982432043, 1.0274291799496125, -1.4302915078210576, 0.5374768701835545, -0.8613061832641854, -3.0695203171463605, -3.4273103998563332, -4.402900280923228, -0.018842087296687682, -0.8672024368142095], [-1.2610280968766947, -3.0974295400594394, -3.099305139260861, -1.8838264222004069, -2.592941485518322, -5.048603828511765, 4.1190853256105076, 3.4587197801800995, 3.3712006877163927, 0.1855923065850317, -0.18589612165545266, 0.9085154446720257, -4.9274685375178, 5.32492841787543, -3.4999237240041925, -1.132803846940774, -2.3374713388432804, -1.9089818307626718, 0.46376612686851265, -3.795387058453355, -0.5268180228382077, 3.3386051825999288, 3.9403334839779864, -3.760692819543831, -1.4374767205172412, -0.16064772799246163, 2.061055158847659, 1.6134123560051956, 0.14320304601040768, -2.4623372461946857, 3.082711328308264, 0.8940781255270402, 1.584209122790944, -0.8118299654229166, 3.545161325160372, -0.3946207889844535, -2.548775643657295, 0.6534399913184041, -1.1597436390893405, 2.3191908709415108, 0.2713267421364344, -2.5943120143771967, -0.8048435750778211, -0.8625141112064635, 4.260215955222541, 0.7280345072124097, 1.4416434256360438, -3.376127128479901, -2.1801511597078447, -3.316050399859204, -3.266367526621455, 2.564023918042259, -1.7376484801682337, -2.3668341669204525, 1.2109716232448253, 2.0613376280951403, 3.268833540576853, 2.0783838888012336, -0.5369790662174224, -3.3299620510808876, -0.35226421910501204, 1.07736412091515, -5.792565110629559, -0.11167078737192404, -1.8153514857488622, 0.8159030036165381, 0.06077030574029407, -0.447191630042122, 3.6661201224547826, -2.045884091978298, 1.1638748083052826, -2.2977048362223487, -2.244840639458161, -3.8839057427167383, -3.7616256270356296, 0.740998327280668, -1.969532610300467, -1.2080378508611491, 0.5673562036205453, 2.705466314427986, 1.9053875706505303, 0.4552767078088493, 1.8930243271297371, -1.0813632321094822, -1.7405103861025162, 1.7060500178971825, -1.0100185028178965, 0.07276013088512273, 2.494278532984254, -0.7794817544720538, 2.053396704657463], [0.6355971925408925, 0.6428620772559204, 1.3894869025939327, -0.4123570907464257, 0.5964953137101208, 0.2716541919262759, -7.492757587649898, 2.1808838358969584, -3.449527799609263, 2.8955017442026767, -1.8186107783957985, -0.26253147910661917, -0.5443265931216665, -3.5826347125763807, 1.191653995391253, 3.849813132969984, 1.077245619844519, -2.5346007530508383, -1.4215531988273022, -1.0693113272691197, -3.443778479167044, -0.47164187561958726, 1.5066525581134744, -1.8980561142545906, 2.7685601902103576, -0.9972135176094434, -0.15080421014510237, -2.489902145434244, 0.5866902343034408, -4.266071664173991, -0.044806823298714604, -0.36500998378124455, -5.281184342109448, -2.0002460034764695, -1.6154429259608625, -2.0716896506866407, 1.5083618701068822, -3.1427580905161543, -3.672353290326016, 0.9421448677256175, -0.0858063101668437, 2.2279419047600375, -0.24527520793144916, 0.8478425953418398, -0.09478714130711852, 3.5469749904980126, -1.3603799094696374, -3.197190209132992, 0.6573806382038987, 0.4382413264285192, 3.009013589579088, -1.572155299827992, 1.8702878168000103, 0.29960730033535987, 0.8465086060504406, -2.152507400230289, -3.210154702420012, -1.47383795030244, -1.4754564982673046, 4.38572248616122, 3.355440078626835, 1.1131237909971494, -2.0235460699192593, -0.08459425679430144, -0.9737151804070965, 0.7137991992003612, -0.8132936269344547, -0.8184682431053711, 2.688057591048191, 2.2945383950197393, -3.4247413923994046, 1.8095980444136286, 1.38992479863041, -1.1930324357212196, 1.7939547610694084, -4.079555005718383, -0.02890409278316808, 1.3579589789533082, -1.8190488668062064, -0.5457379416620205, -3.2164571206297143, -2.8271377258677965, 1.4345405214902764, -4.306011062398266, -3.4730476505357637, -4.046005332511868, 0.8397368630224503, 7.610467054823355, 0.47530396462800845, -1.00115007198913, 1.017778558363207], [1.6674255384752636, -2.3824507766275125, 1.4496797066490563, -0.320668080565096, -2.578389412979842, -2.0275403122750175, -0.2764837430497079, 0.31548057508831784, -0.4538629059309809, 2.3683483106816694, -0.007824859300412101, 2.3108635664496235, -0.6618784968190085, -0.7816478919313391, -1.3813304624292866, -1.9343022774243672, 1.593414476006663, -1.3166411854933449, -1.8878411074183554, -0.7702434764771227, -2.040388530166724, 0.8444695203920161, 0.5727820985725325, -0.9995068638713213, -1.6611176372583725, 0.2665577527849252, 4.125755338727728, 5.204636182821119, 0.786735495644205, -0.3376723362316362, 0.3642168788852098, -0.8098338307443209, 4.0525365720320785, -1.2252092062844793, -1.659417009428248, 1.42173203681671, -2.5039870949659724, 1.9014222596255528, -1.6813536816368164, -4.818187183560672, 0.5060576869880733, -3.3933097347764245, -0.018816717708082242, 4.772805893281545, -0.9055652604011355, 1.5060882082329539, -1.5899935291781937, 2.808332464578933, 2.075162337813418, -2.954621536489797, 1.648733466431361, 0.004977334012559398, -0.702158296789139, -0.1348976262247572, -1.010031287474976, -2.3307091380187104, 1.6278441761151066, -1.4249086788498682, -2.083867484456507, 2.513309104642113, -0.11327423604631326, 1.4806073689679948, 1.359422169559454, 0.739717851353652, -1.1380987895115182, 0.2004201699480208, 2.2470868233311174, -0.3111544214176956, -1.0186152300528468, -0.9009996000178843, -5.063018763337558, -0.11739527199518152, 1.6349080736886363, -2.4886764045923186, -1.589284380021926, 1.9818666514544048, 3.30942015008567, 1.7418457070486353, -1.041446905825845, -1.2560927092404752, 0.6496796264515632, -2.5041859559491373, 0.5129818866965444, -2.615602559238525, 0.563099079319803, 1.0923329690060886, -0.6281042730626708, -1.5418029072705557, -1.2359508209952936, -1.800691989756614, 2.9753419437049993]], [[-1.2078842753192234, 2.7654620701516928, -0.27124255044209844, -0.5726522619570914, -0.034717000983357005, -3.817152015587407, -1.6886696304586968, 0.006233136186718502, -1.7404970742279915, -1.2239072397678306]]], "sizes": [64, 91, 10, 1]}